Language model created by QuickLM on Thu May 31 23:07:22 EDT 2018
Copyright (c) 1996-2010 Carnegie Mellon University and Alexander I. Rudnicky

The model is in standard ARPA format, designed by Doug Paul while he was at MITRE.

The code that was used to produce this language model is available in Open Source.
Please visit http://www.speech.cs.cmu.edu/tools/ for more information

The (fixed) discount mass is 0.5. The backoffs are computed using the ratio method.
This model based on a corpus of 8 sentences and 22 words

\data\
ngram 1=22
ngram 2=31
ngram 3=23

\1-grams:
-0.9890 </s> -0.3010
-0.9890 <s> -0.2540
-1.5911 A -0.2897
-1.8921 ALARM -0.2540
-1.8921 AN -0.2954
-1.8921 CONNECTED -0.2540
-1.8921 EASY -0.2540
-1.8921 HEY -0.2954
-1.5911 IS -0.2840
-1.8921 JOKE -0.2540
-1.8921 MUSIC -0.2540
-1.8921 PLAY -0.2954
-1.8921 SCREENSHOT -0.2540
-1.8921 SEARCH -0.2897
-1.8921 SET -0.2954
-1.8921 TAKE -0.2897
-1.8921 TELL -0.2897
-1.5911 THE -0.2897
-1.8921 WEATHER -0.2540
-1.8921 WEB -0.2540
-1.8921 WHAT -0.2897
-1.8921 WHO -0.2897

\2-grams:
-1.2041 <s> HEY 0.0000
-1.2041 <s> PLAY 0.0000
-1.2041 <s> SEARCH 0.0000
-1.2041 <s> SET 0.0000
-1.2041 <s> TAKE 0.0000
-1.2041 <s> TELL 0.0000
-1.2041 <s> WHAT 0.0000
-1.2041 <s> WHO 0.0000
-0.6021 A JOKE 0.0000
-0.6021 A SCREENSHOT 0.0000
-0.3010 ALARM </s> -0.3010
-0.3010 AN ALARM 0.0000
-0.3010 CONNECTED </s> -0.3010
-0.3010 EASY </s> -0.3010
-0.3010 HEY EASY 0.0000
-0.6021 IS CONNECTED 0.0000
-0.6021 IS THE -0.1761
-0.3010 JOKE </s> -0.3010
-0.3010 MUSIC </s> -0.3010
-0.3010 PLAY MUSIC 0.0000
-0.3010 SCREENSHOT </s> -0.3010
-0.3010 SEARCH THE -0.1761
-0.3010 SET AN 0.0000
-0.3010 TAKE A -0.1761
-0.3010 TELL A -0.1761
-0.6021 THE WEATHER 0.0000
-0.6021 THE WEB 0.0000
-0.3010 WEATHER </s> -0.3010
-0.3010 WEB </s> -0.3010
-0.3010 WHAT IS -0.1761
-0.3010 WHO IS -0.1761

\3-grams:
-0.3010 <s> HEY EASY
-0.3010 <s> PLAY MUSIC
-0.3010 <s> SEARCH THE
-0.3010 <s> SET AN
-0.3010 <s> TAKE A
-0.3010 <s> TELL A
-0.3010 <s> WHAT IS
-0.3010 <s> WHO IS
-0.3010 A JOKE </s>
-0.3010 A SCREENSHOT </s>
-0.3010 AN ALARM </s>
-0.3010 HEY EASY </s>
-0.3010 IS CONNECTED </s>
-0.3010 IS THE WEATHER
-0.3010 PLAY MUSIC </s>
-0.3010 SEARCH THE WEB
-0.3010 SET AN ALARM
-0.3010 TAKE A SCREENSHOT
-0.3010 TELL A JOKE
-0.3010 THE WEATHER </s>
-0.3010 THE WEB </s>
-0.3010 WHAT IS THE
-0.3010 WHO IS CONNECTED

\end\
